svm_type c_svc
kernel_type linear
nr_class 5
total_sv 25
rho -0.323233 0.129261 0.114695 0.00488868 0.153942 0.12724 -0.00646224 -0.0505368 -0.181683 -0.0655568
label 1 2 3 4 5
nr_sv 6 3 6 3 7
SV
1 0.3181499472093256 1 0.4732398674047731 0:-0.033136874 1:-0.064348251 2:0.031623866 3:-0.10091637 4:-0.034624938 5:0.13539769 6:0.06339594 7:0.061431129 8:-0.15444262 9:0.011314136 10:-0.02974196 11:0.095191658 12:-0.06286189 13:0.074589923 14:-0.018806174 15:-0.013783135 16:0.099017151 17:0.021810513 18:0.18106233 19:0.0027710015 20:-0.098276153 21:0.11522059 22:-0.10506994 23:-0.075428285 24:0.091527916 25:0.066811629 26:0.15264885 27:0.011734491 28:-0.16280429 29:-0.059075277 30:-0.00098415394 31:0.019925816 32:-0.031727433 33:0.054367851 34:0.057383172 35:0.01685521 36:0.1271506 37:-0.20105265 38:-0.06561321 39:0.05655038 40:-0.037007619 41:0.011418108 42:0.0032359336 43:0.054977499 44:-0.020658003 45:-0.075880356 46:-0.069652379 47:-0.042784166 48:-0.1176671 49:-0.0053106388 50:0.13933167 51:0.015025961 52:0.074046955 53:-0.11948369 54:-0.21206519 55:-0.031459063 56:0.089499906 57:0.054293253 58:0.080820657 59:0.078945138 60:0.057809491 61:-0.005947513 62:-0.065920904 63:-0.0090712663 64:0.069685914 65:0.050207544 66:0.082660571 67:0.12341052 68:0.15958339 69:-0.011069193 70:-0.078230396 71:-0.07203576 72:0.011562616 73:0.027912837 74:-0.12517512 75:0.0582362 76:0.1660779 77:0.10199315 78:0.031739127 79:0.15159391 80:-0.037702601 81:-0.091067933 82:-0.14234179 83:-0.085377567 84:0.030937668 85:-0.09420383 86:-0.014855062 87:-0.10582665 88:-0.050435089 89:0.044645734 90:-0.088058785 91:0.0067781373 92:-0.011123624 93:-0.14143088 94:0.08394821 95:0.10904191 96:0.035955656 97:-0.04662624 98:0.0065267277 99:-0.099956386 100:0.087338984 101:0.080360211 102:-0.06010152 103:-0.0050199293 104:-0.10132843 105:0.077906065 106:-0.013833506 107:-0.12298053 108:0.054864731 109:-0.11422749 110:-0.012733405 111:-0.027537387 112:0.047065463 113:-0.10851366 114:-0.076342382 115:0.15601474 116:-0.12082933 117:0.22943948 118:0.039128009 119:0.035610743 120:0.12753417 121:0.011294694 122:-0.016568454 123:0.016926432 124:0.10718674 125:0.16457006 126:0.18161845 127:0.047943842 
0.5926993642464613 0 0.2668537956378291 0 0:-0.026512031 1:-0.07926248 2:0.025006926 3:-0.058401238 4:-0.020093905 5:0.15348242 6:0.03981572 7:0.053364832 8:-0.204873 9:0.015118041 10:-0.029187813 11:0.091246359 12:-0.06825088 13:0.092105731 14:0.019115455 15:-0.012153187 16:0.066319443 17:0.043601405 18:0.15897033 19:0.017944491 20:-0.10156279 21:0.12857917 22:-0.11493751 23:-0.067226328 24:0.065630764 25:0.051987432 26:0.15317962 27:0.023149481 28:-0.16348474 29:-0.034319188 30:-0.015752083 31:0.012900518 32:-0.025095424 33:0.09924788 34:0.030363124 35:0.036040548 36:0.11900047 37:-0.19378959 38:-0.071939208 39:0.053308412 40:-0.0027102006 41:-0.028613945 42:-0.0069049289 43:0.055217363 44:-0.0080361301 45:-0.043692119 46:-0.066986479 47:-0.048687488 48:-0.11354902 49:0.01326404 50:0.1533813 51:0.014607712 52:0.044604026 53:-0.07417535 54:-0.20567124 55:-0.055518802 56:0.074029632 57:0.052750476 58:0.09157519 59:0.089365721 60:0.035444226 61:-0.021371165 62:-0.066179417 63:-0.0074637732 64:0.024968673 65:0.031260099 66:0.10520887 67:0.11581052 68:0.13121262 69:-0.0063647274 70:-0.061677959 71:-0.10590984 72:0.0035417443 73:0.036934927 74:-0.096185647 75:0.017603546 76:0.18725175 77:0.13440965 78:0.037784614 79:0.1514353 80:-0.029310159 81:-0.07476493 82:-0.15439278 83:-0.066087462 84:0.018715676 85:-0.12037012 86:-0.016781891 87:-0.090459675 88:-0.052746162 89:0.040632166 90:-0.075514011 91:0.030226473 92:0.020651465 93:-0.11789099 94:0.086535551 95:0.083651811 96:0.02991626 97:-0.029459352 98:0.031899929 99:-0.080745593 100:0.094072431 101:0.102655 102:-0.070983149 103:-0.015644977 104:-0.14049941 105:0.060397252 106:-0.027488742 107:-0.14939284 108:0.06235585 109:-0.11121625 110:0.01278741 111:-0.029019259 112:0.020040968 113:-0.12440829 114:-0.092731275 115:0.16398993 116:-0.13495217 117:0.21584514 118:0.075306557 119:0.043058377 120:0.092511706 121:0.017093346 122:-0.035191868 123:-0.0056429137 124:0.12531455 125:0.13769904 126:0.20091201 127:0.054286502 
1 0 0.6195872331859565 0 0:-0.022217304 1:-0.084277749 2:0.020121669 3:-0.054074217 4:-0.022588277 5:0.15440018 6:0.04690839 7:0.058719829 8:-0.19626261 9:0.025031468 10:-0.031904358 11:0.099269912 12:-0.060097784 13:0.083597854 14:0.0073719607 15:0.0013020411 16:0.077281393 17:0.04176547 18:0.15606505 19:0.034728423 20:-0.10091618 21:0.12480263 22:-0.12344335 23:-0.080810487 24:0.057127181 25:0.05398687 26:0.15217365 27:0.0059041567 28:-0.15635386 29:-0.034940708 30:-0.017701924 31:0.0018681112 32:-0.027663162 33:0.072858065 34:0.044074211 35:0.027231656 36:0.1202249 37:-0.20558979 38:-0.069085345 39:0.047868103 40:0.0024932073 41:-0.022125104 42:-0.020365922 43:0.054012138 44:-0.015491787 45:-0.061523955 46:-0.047935512 47:-0.062229 48:-0.10672776 49:0.0086066416 50:0.14459907 51:0.036027979 52:0.049288005 53:-0.066973478 54:-0.20629372 55:-0.056588929 56:0.074110754 57:0.028527236 58:0.091689043 59:0.083051153 60:0.051730867 61:-0.028043788 62:-0.081315674 63:-0.0018518041 64:0.030063458 65:0.035406802 66:0.10191366 67:0.12990203 68:0.1288691 69:0.011791592 70:-0.065395564 71:-0.1006605 72:0.0089018429 73:0.048199661 74:-0.10625108 75:0.0038780279 76:0.18285257 77:0.13354719 78:0.026980506 79:0.15023597 80:-0.031850807 81:-0.067417741 82:-0.1688883 83:-0.070492111 84:0.0087185903 85:-0.11670315 86:-0.03437683 87:-0.084907137 88:-0.055317555 89:0.043396074 90:-0.079523973 91:0.034816969 92:0.028102977 93:-0.11801694 94:0.08464618 95:0.082404375 96:0.029860165 97:-0.03793402 98:0.020562178 99:-0.087707862 100:0.091407709 101:0.10966631 102:-0.073302053 103:-0.029643949 104:-0.14886795 105:0.060053021 106:-0.016773572 107:-0.14253359 108:0.051567752 109:-0.10412556 110:-0.0048179296 111:-0.022832302 112:0.025538718 113:-0.12452554 114:-0.098672278 115:0.15358509 116:-0.13459691 117:0.19299704 118:0.077250272 119:0.039582964 120:0.10346199 121:0.016339188 122:-0.035295647 123:-0.00086838496 124:0.11115087 125:0.16075476 126:0.20565949 127:0.062574908 
0 0.01371102262821167 0 1 0:-0.01388308 1:-0.060291614 2:0.020998323 3:-0.017167227 4:0.0063429642 5:0.12820616 6:0.0020750097 7:0.056581985 8:-0.17609248 9:0.04964868 10:0.0012713047 11:0.10447761 12:-0.076072074 13:0.090335801 14:-0.018110948 15:0.016017135 16:0.096597373 17:0.041639373 18:0.15121016 19:0.018013403 20:-0.098374099 21:0.14694326 22:-0.11708073 23:-0.05430552 24:0.053616852 25:0.060609642 26:0.15619501 27:0.014084157 28:-0.17698462 29:-0.038881235 30:0.0088647241 31:-0.0014047952 32:-0.042486571 33:0.093672223 34:0.033519469 35:0.026716392 36:0.11573471 37:-0.16720906 38:-0.067870907 39:0.063479111 40:0.019424303 41:-0.046256661 42:0.0089764446 43:0.054941949 44:-0.028045816 45:-0.04624784 46:-0.041011781 47:-0.050807554 48:-0.15450351 49:0.043544699 50:0.1864692 51:0.027834555 52:0.013014751 53:-0.071668528 54:-0.20492388 55:-0.070678748 56:0.065466516 57:0.040677592 58:0.089648411 59:0.090679452 60:-0.014885003 61:0.0022249506 62:-0.049986292 63:-0.03366635 64:0.012708891 65:0.023250045 66:0.11458894 67:0.13357851 68:0.11338015 69:0.0057308199 70:-0.041567832 71:-0.1173759 72:0.034789834 73:-0.0014726659 74:-0.10612772 75:0.021036264 76:0.21348535 77:0.12633453 78:-0.037478745 79:0.13916312 80:-0.0089309281 81:-0.094627313 82:-0.13342394 83:-0.08524248 84:0.020585801 85:-0.11071973 86:-0.014013607 87:-0.052962858 88:-0.042557098 89:0.01653415 90:-0.074522212 91:0.050492167 92:0.056558635 93:-0.1501642 94:0.055128217 95:0.083006144 96:0.01661079 97:-0.061512426 98:0.025506692 99:-0.065901473 100:0.11310164 101:0.091132559 102:-0.085827745 103:-0.042705279 104:-0.14281455 105:0.045974862 106:-0.097842671 107:-0.15172103 108:0.036380038 109:-0.098277368 110:0.023466272 111:-0.0085043022 112:0.040019989 113:-0.088229187 114:-0.058497138 115:0.16103712 116:-0.12248178 117:0.20630661 118:0.053314634 119:0.03940117 120:0.1201156 121:0.028823392 122:0.012338672 123:-0.0022414543 124:0.12175785 125:0.16334353 126:0.19477646 127:0.056211207 
0 1 0 0.8204615080558173 0:-0.023199223 1:-0.046905596 2:-0.0014884172 3:-0.046394441 4:-0.014065691 5:0.14855294 6:0.014853834 7:0.061091937 8:-0.17178415 9:0.037960459 10:-0.029655054 11:0.095766939 12:-0.069860049 13:0.10057636 14:-0.002017278 15:0.023102034 16:0.075971678 17:0.03562656 18:0.16121332 19:-0.0076357797 20:-0.12066895 21:0.11609292 22:-0.091279186 23:-0.043697163 24:0.071772292 25:0.077148691 26:0.13921954 27:0.014020541 28:-0.14125818 29:-0.022715949 30:-0.023940125 31:0.027647227 32:-0.050461791 33:0.092368282 34:0.043013729 35:0.033167049 36:0.11969128 37:-0.19313459 38:-0.042316493 39:0.063847907 40:0.0060233991 41:-0.037380744 42:0.0015376533 43:0.063677557 44:-0.0032352011 45:-0.042040158 46:-0.041271523 47:-0.043988112 48:-0.13392739 49:0.0061231428 50:0.17703876 51:-0.02695374 52:0.022942495 53:-0.083571836 54:-0.19077691 55:-0.09002205 56:0.078781702 57:0.062010564 58:0.11690591 59:0.12702341 60:0.051984444 61:0.0097983256 62:-0.081085429 63:-0.0059201699 64:0.0041513019 65:0.0048850775 66:0.11328705 67:0.12361309 68:0.093811713 69:-0.01132637 70:-0.043154202 71:-0.12012029 72:0.02363967 73:0.016659932 74:-0.08899004 75:0.030837819 76:0.20342146 77:0.1296387 78:0.0024723108 79:0.14138451 80:-0.024885427 81:-0.0845742 82:-0.14566664 83:-0.071959317 84:0.013703473 85:-0.11130328 86:-0.0083648823 87:-0.069914415 88:-0.050397139 89:0.027057691 90:-0.092613541 91:0.039528824 92:0.03198196 93:-0.12346692 94:0.10158334 95:0.076080658 96:0.024264382 97:-0.0052562463 98:0.00074551778 99:-0.067115739 100:0.088026918 101:0.096474394 102:-0.06835822 103:-0.018011633 104:-0.12905163 105:0.06399937 106:-0.049213115 107:-0.18435648 108:0.030109728 109:-0.119853 110:0.013314155 111:-0.023747751 112:0.023458548 113:-0.12250706 114:-0.061812062 115:0.18519083 116:-0.15310216 117:0.23075403 118:0.10381441 119:0.076203644 120:0.10429376 121:0.016144143 122:-0.029273391 123:-0.028611755 124:0.10796747 125:0.1044518 126:0.17878638 127:0.036841616 
0.4073006357535387 0 0 1 0:-0.025370883 1:-0.078569837 2:0.0090490989 3:-0.043953609 4:-0.046598196 5:0.16166423 6:0.028407682 7:0.042540666 8:-0.20878355 9:0.015254803 10:-0.03326847 11:0.10457387 12:-0.046704903 13:0.08718881 14:0.017262956 15:0.0062508807 16:0.079689689 17:0.054669496 18:0.14335206 19:0.042153038 20:-0.10570152 21:0.1162198 22:-0.14248265 23:-0.070438862 24:0.074066356 25:0.051968995 26:0.15152618 27:-0.0056429701 28:-0.15437734 29:-0.018422171 30:-0.015801523 31:0.011947419 32:-0.031782452 33:0.067127146 34:0.05003548 35:0.043967977 36:0.11294299 37:-0.21266289 38:-0.07305491 39:0.04350359 40:0.010000024 41:-0.028089991 42:-0.038316417 43:0.049464013 44:-0.0399157 45:-0.053332105 46:-0.041047826 47:-0.063086286 48:-0.08245822 49:0.01147344 50:0.130797 51:0.033365041 52:0.044356376 53:-0.058559753 54:-0.17982726 55:-0.058459215 56:0.070203252 57:0.03083583 58:0.10361873 59:0.10174493 60:0.056055233 61:-0.0044378871 62:-0.077143691 63:0.021620149 64:0.031331081 65:0.01888084 66:0.0994948 67:0.11704408 68:0.12107289 69:-0.0080698775 70:-0.069373004 71:-0.11691237 72:0.01391843 73:0.048473433 74:-0.10397221 75:0.0037905897 76:0.17507525 77:0.13780478 78:0.03697221 79:0.15332907 80:-0.023623375 81:-0.066140622 82:-0.18691094 83:-0.06175131 84:0.012115791 85:-0.12219432 86:-0.044321552 87:-0.086235002 88:-0.047930211 89:0.038243547 90:-0.07437773 91:0.054773249 92:0.029651407 93:-0.12619369 94:0.080109462 95:0.074094288 96:0.018636392 97:-0.035434019 98:0.022557078 99:-0.07526242 100:0.083066672 101:0.10709818 102:-0.067012377 103:-0.04053488 104:-0.13561939 105:0.046684239 106:-0.0098876311 107:-0.12384406 108:0.0550717 109:-0.1136077 110:-0.0053794901 111:-0.032684226 112:0.018615134 113:-0.14218156 114:-0.086638644 115:0.15960357 116:-0.13536507 117:0.20916517 118:0.066543169 119:0.032703549 120:0.10981698 121:0.014126596 122:-0.051358104 123:0.014268647 124:0.11270548 125:0.16309701 126:0.2099499 127:0.06223724 
-1 0.5061368026180836 0.6138863109606858 0.7423640611951434 0:-0.026089232 1:-0.093741901 2:-0.015533322 3:-0.15392874 4:-0.057352897 5:0.22026999 6:0.043988254 7:-0.014600765 8:-0.17385031 9:-0.0056855553 10:0.030096604 11:0.029463569 12:0.012523773 13:0.024227235 14:-0.063643545 15:-0.03876698 16:0.034289636 17:0.056213174 18:0.16470014 19:0.039533429 20:-0.0037810514 21:0.12568994 22:-0.13489836 23:-0.057453457 24:-0.055052124 25:0.055517595 26:0.21938537 27:0.003580553 28:-0.029479645 29:-0.11183407 30:-0.080037817 31:0.11116854 32:0.0085089188 33:0.0283147 34:0.038054738 35:0.096932516 36:0.088642441 37:-0.12368473 38:-0.07222227 39:0.046422616 40:-0.087507583 41:0.0099518988 42:0.00071388145 43:0.008523589 44:-0.027387602 45:-0.020862073 46:-0.14347753 47:0.050061047 48:-0.10375949 49:0.0062338277 50:0.11373071 51:-0.045810636 52:0.039422702 53:-0.052986771 54:-0.096171372 55:0.090166226 56:0.1051289 57:0.10039895 58:0.098442182 59:0.061501611 60:0.021792211 61:-0.026103616 62:-0.061133251 63:-0.0072896401 64:0.23680773 65:0.13188379 66:0.059092965 67:0.056975313 68:0.18413746 69:0.014228098 70:-0.14125346 71:0.030786421 72:-0.015867012 73:0.081442624 74:-0.14777721 75:0.070440888 76:-0.0025438862 77:0.10901907 78:0.095721126 79:0.12262758 80:0.044550717 81:-0.090200253 82:-0.086028472 83:-0.052591383 84:0.027315188 85:-0.025362728 86:-0.0085297693 87:-0.02166784 88:-0.074055478 89:0.076529108 90:-0.096677296 91:-0.0397291 92:-0.059358031 93:-0.0730175 94:0.0017414056 95:0.070994668 96:0.039418429 97:-0.057318844 98:0.038218737 99:-0.11019365 100:-0.050523635 101:0.00068810442 102:-0.079096019 103:-0.073945157 104:-0.042153347 105:0.11885245 106:0.089198351 107:-0.11525813 108:0.10708499 109:-0.1607122 110:-0.055308025 111:-0.039422221 112:0.061995197 113:-0.085704379 114:-0.11334324 115:0.14725257 116:-0.10120628 117:0.18571767 118:-0.053336464 119:0.023309739 120:0.087858818 121:0.089730658 122:0.082938574 123:0.0021360386 124:0.085920058 125:0.14234447 126:0.12933803 127:0.14170697 
-1 0.5075046414036091 0.4383268861384494 1 0:-0.014140738 1:-0.11624335 2:0.035899088 3:-0.11088406 4:-0.032746222 5:0.22380513 6:0.071231917 7:-0.051237263 8:-0.1768886 9:-0.0067239017 10:0.014600991 11:0.096109189 12:-0.0065184655 13:0.025991369 14:-0.025010137 15:-0.027296904 16:0.045011226 17:0.055203777 18:0.12133789 19:0.033370111 20:-0.01725916 21:0.15309836 22:-0.12411096 23:-0.060694054 24:-0.042960633 25:0.041922159 26:0.20782936 27:0.0094128726 28:-0.076826602 29:-0.045801658 30:-0.06585703 31:0.066780835 32:0.0059706918 33:0.065901123 34:0.064355008 35:0.050275132 36:0.094994612 37:-0.18590671 38:-0.089541122 39:0.041618418 40:-0.09459985 41:0.020029752 42:-0.031528622 43:-0.015231021 44:-0.026477136 45:0.008372454 46:-0.1247118 47:0.052987169 48:-0.086577684 49:0.0053693219 50:0.10263824 51:0.0034608312 52:0.067985773 53:-0.056928959 54:-0.13020127 55:0.078809939 56:0.1365131 57:0.090491615 58:0.10776129 59:0.057134546 60:0.031007225 61:-0.043504093 62:-0.04301066 63:0.0095762387 64:0.23670354 65:0.12800275 66:0.049152751 67:0.061276983 68:0.20272227 69:0.029843332 70:-0.171207 71:-0.017009042 72:-0.00056012679 73:0.086685069 74:-0.13253947 75:0.068570651 76:0.042994164 77:0.14410497 78:0.11352982 79:0.091538876 80:-0.014070266 81:-0.049646091 82:-0.075854823 83:-0.031374127 84:-0.016802074 85:-0.049633 86:-0.015575056 87:-0.026639173 88:-0.072667889 89:0.056337394 90:-0.061127674 91:-0.0026871962 92:-0.046839453 93:-0.085345559 94:0.00360009 95:0.12358421 96:0.052139837 97:-0.028291278 98:0.063281834 99:-0.16209611 100:-0.052129585 101:0.013528528 102:-0.076942444 103:-0.094888158 104:-0.068459742 105:0.10324974 106:0.083452664 107:-0.10948163 108:0.10619585 109:-0.11646586 110:-0.090698525 111:-0.012240721 112:0.063844599 113:-0.050943401 114:-0.055566721 115:0.13881513 116:-0.084625684 117:0.13733061 118:0.0080117024 119:0.010873059 120:0.10729676 121:0.08998733 122:0.069187753 123:0.05030543 124:0.099220455 125:0.12194889 126:0.18432175 127:0.14134629 
-1 0.3002418755849861 1 0.9500372149221672 0:0.0049027754 1:-0.12154282 2:0.034972005 3:-0.1378057 4:-0.035267971 5:0.19171081 6:0.089322947 7:-0.03137245 8:-0.15819997 9:0.0072899559 10:-0.0044063139 11:0.08594016 12:0.0042093196 13:0.032891277 14:-0.03212348 15:-0.022815155 16:0.043071155 17:0.014154784 18:0.13535933 19:0.045551401 20:-0.059200589 21:0.084463529 22:-0.13223547 23:-0.088368565 24:-0.0096834693 25:0.072540596 26:0.20720983 27:0.028602924 28:-0.10663989 29:-0.069737412 30:-0.043729816 31:0.060075689 32:0.0099473102 33:0.0121579 34:0.079260118 35:0.075798139 36:0.10474201 37:-0.16546547 38:-0.1202222 39:0.031474926 40:-0.078891218 41:0.034377705 42:-0.044246025 43:-0.017975193 44:-0.040521789 45:-0.037327722 46:-0.14918834 47:0.071648777 48:-0.063360639 49:0.0017191377 50:0.11167905 51:0.0048334636 52:0.087291315 53:-0.086823985 54:-0.13028987 55:0.074579522 56:0.12824048 57:0.091367587 58:0.10056276 59:0.069830447 60:0.026100166 61:-0.033213865 62:-0.040022295 63:-0.0089874985 64:0.23049241 65:0.12095208 66:0.022121945 67:0.082919173 68:0.20772085 69:0.044744555 70:-0.17982048 71:0.021919547 72:-0.0014092935 73:0.058056179 74:-0.15726842 75:0.057945691 76:-0.0021813812 77:0.1317074 78:0.12941894 79:0.088761315 80:0.0093100127 81:-0.040619712 82:-0.089680962 83:-0.050772779 84:-0.01989408 85:-0.052078359 86:-0.010929705 87:-0.060382053 88:-0.018257715 89:0.058990091 90:-0.064623691 91:-0.0044118413 92:-0.068640724 93:-0.10635407 94:0.023079626 95:0.10312636 96:0.037137747 97:-0.06523595 98:0.050044488 99:-0.15380493 100:-0.064694047 101:0.022493903 102:-0.060695849 103:-0.073830158 104:-0.042372614 105:0.11519502 106:0.10597008 107:-0.12487465 108:0.064774834 109:-0.15766799 110:-0.085446753 111:-0.032101501 112:0.039304949 113:-0.031725191 114:-0.052879617 115:0.11077886 116:-0.072808348 117:0.14525147 118:-0.0078040655 119:-0.022190908 120:0.11010674 121:0.088855669 122:0.056101739 123:0.056841735 124:0.077596664 125:0.15360796 126:0.17255665 127:0.11739684 
-0.5148648959682506 -0.3813931898846821 0.2863205406661861 0.5002421473101495 0:0.023801632 1:0.027150961 2:-0.027737789 3:-0.012403103 4:-0.13456483 5:0.071611851 6:-0.033904713 7:-0.084516734 8:0.22977804 9:0.012000168 10:0.084524781 11:-0.0055440171 12:-0.089736305 13:-0.01933709 14:-0.027318489 15:-0.032619897 16:0.011835443 17:-0.08361052 18:0.069788225 19:-0.057266779 20:-0.17783883 21:0.029348709 22:0.091949441 23:-0.065630145 24:-0.10331327 25:-0.036930665 26:0.049795933 27:-0.09069892 28:-0.0021290288 29:0.064065307 30:0.13279994 31:0.0233435 32:0.086129338 33:0.012254302 34:0.10172997 35:0.076217458 36:-0.07205721 37:0.017629774 38:-0.03378927 39:0.028798182 40:-0.056166641 41:-0.14181188 42:-0.14035688 43:-0.032759085 44:0.03080084 45:0.13789995 46:-0.014737577 47:-0.11153329 48:0.031905334 49:-0.024403948 50:0.10092879 51:-0.054103971 52:0.072697267 53:-0.064986818 54:-0.091762744 55:-0.023821963 56:-0.050055262 57:-0.17614183 58:-0.20318522 59:-0.015707683 60:-0.070078343 61:0.13168363 62:-0.027788671 63:0.00086938677 64:0.067746818 65:0.045743529 66:-0.080073439 67:0.15489756 68:0.084924981 69:-0.084623396 70:0.048659511 71:0.016418073 72:-0.11157019 73:-0.16381268 74:-0.1547067 75:0.1029289 76:0.12777478 77:0.077865981 78:0.015730979 79:-0.033596285 80:-0.14325933 81:-0.062871449 82:0.037240304 83:-0.15562277 84:-0.074618608 85:0.077662356 86:0.0038856436 87:0.033104397 88:0.0052804635 89:-0.15454617 90:-0.14169402 91:0.060239471 92:0.072324984 93:0.086730495 94:0.043441374 95:0.028840352 96:-0.019372061 97:0.083836503 98:0.083400488 99:0.017691374 100:-0.026685106 101:-0.051031895 102:0.12297907 103:-0.15594102 104:-0.0088100936 105:0.099225901 106:0.13834114 107:-0.044107039 108:0.023301221 109:-0.079947561 110:0.055414204 111:-0.031610645 112:-0.038070578 113:0.13677309 114:0.1014289 115:0.15361391 116:0.16143842 117:0.026161244 118:0.067908682 119:0.11568234 120:0.20299269 121:0.0051592626 122:0.097437814 123:-0.026051879 124:0.090082757 125:-0.09768185 126:0.079437822 127:0.0015028297 
-0.02061960937122037 -0.3617296870199781 0.08083916243383341 0.385453631759652 0:-0.0027465543 1:-0.032874033 2:0.025629155 3:0.053990573 4:-0.27599573 5:0.080606595 6:-0.058187816 7:0.020242495 8:0.15258759 9:0.0045896908 10:0.011501797 11:-0.055446487 12:-0.024566822 13:-0.026630539 14:-0.032272909 15:-0.03478187 16:0.076364771 17:-0.015753156 18:-0.017954063 19:0.012893028 20:-0.031611994 21:-0.10916334 22:0.10479238 23:-0.013079327 24:-0.12046223 25:-0.045169856 26:0.057296272 27:-0.11952972 28:-0.031142136 29:-0.0091216723 30:0.14997704 31:0.016766777 32:0.100557 33:-0.034428973 34:0.20139511 35:0.07578405 36:0.058204025 37:0.03239717 38:-0.1365792 39:0.01477049 40:-0.081090003 41:-0.19507959 42:-0.1871554 43:-0.015292061 44:-0.016394952 45:0.15020466 46:-0.0089474423 47:-0.08261741 48:-0.03271554 49:0.021612875 50:0.073006824 51:-0.013734994 52:0.051174704 53:0.027735811 54:0.035551574 55:0.1049467 56:-0.00019219299 57:-0.081466265 58:-0.15656662 59:-0.062527612 60:-0.092520505 61:0.022409482 62:-0.030688776 63:0.13056825 64:0.11612717 65:-0.041908324 66:0.017463531 67:0.19241492 68:-0.0082997801 69:0.099209063 70:0.035819218 71:-0.081006989 72:-0.12594821 73:-0.023221243 74:-0.17508462 75:0.036105521 76:-0.03376564 77:0.0034947635 78:-0.0088900551 79:-0.11361702 80:-0.10079468 81:-0.0057294481 82:-0.016549395 83:-0.045558691 84:-0.040099099 85:0.006031611 86:0.084202923 87:0.082702957 88:-0.062086459 89:-0.002864134 90:-0.1984005 91:0.027757024 92:0.018580932 93:0.067651838 94:-0.00039882393 95:0.09637177 96:-0.055627443 97:-0.056315579 98:0.068497792 99:0.13393812 100:-0.036787376 101:0.00068399432 102:0.077111758 103:-0.19811329 104:0.11086933 105:0.094345078 106:0.16914293 107:-0.052370224 108:-0.03154479 109:0.034859598 110:-0.050155301 111:-0.033393327 112:0.00039492754 113:-0.035126723 114:0.15570168 115:0.24556617 116:0.10727848 117:-0.042063288 118:-0.029763637 119:0.077881515 120:0.095295675 121:-0.0037818751 122:0.14263004 123:0.010658735 124:-0.0048554111 125:-0.1608883 126:0.0003016582 127:-0.019729247 
-0 -0 0.4312734761326398 0 0:0.046327479 1:-0.01753493 2:-0.049806926 3:0.011229216 4:-0.058236394 5:-0.015045547 6:-0.13875985 7:0.073845059 8:0.17315134 9:-0.033240609 10:-0.033315651 11:-0.042962965 12:-0.034331556 13:-0.080998354 14:-0.1540754 15:-0.11675417 16:-0.11005104 17:-0.088263154 18:0.045819629 19:0.061250318 20:-0.08539813 21:0.037037387 22:0.17036694 23:-0.048977211 24:-0.16997975 25:-0.021844991 26:0.0085168807 27:-0.019071411 28:-0.082658701 29:-0.022841224 30:0.092593908 31:-0.0079362448 32:0.13802372 33:0.12594311 34:0.11086266 35:0.068189517 36:0.11353251 37:0.12039605 38:0.014883525 39:-0.01160061 40:-0.074351713 41:-0.21073279 42:-0.11207499 43:0.040989622 44:-0.088625722 45:0.043884739 46:-0.0035097315 47:-0.042192668 48:0.018486772 49:0.02933535 50:0.21418522 51:-0.11949803 52:-0.010485223 53:-0.046379283 54:-0.099606745 55:-0.091305561 56:0.019098224 57:-0.16790196 58:-0.16386083 59:-0.032691274 60:-0.17645819 61:0.1218748 62:-0.1023763 63:0.025451455 64:0.14022954 65:-0.039034277 66:-0.17638198 67:0.091606356 68:0.024998683 69:0.039627761 70:-0.00077058846 71:-0.027554777 72:-0.16173583 73:-0.062463339 74:-0.13935882 75:-0.0060201548 76:-0.017120907 77:0.067600071 78:-0.10454612 79:-0.019629298 80:-0.092322797 81:0.064146273 82:-0.021269837 83:-0.1715084 84:-0.092901163 85:0.088497192 86:-0.095860779 87:0.099966675 88:-0.074639946 89:-0.02400242 90:-0.17040972 91:0.018488793 92:0.009171688 93:0.065493479 94:0.063250482 95:0.043706845 96:0.061009407 97:0.10577913 98:-0.053156614 99:0.0039128126 100:-0.066931978 101:0.035357121 102:0.14366287 103:-0.13002463 104:-0.022046687 105:-0.014404223 106:0.031729549 107:-0.020223811 108:0.080870673 109:-0.0012723802 110:-0.038294263 111:0.018719543 112:-0.031342596 113:0.0038853863 114:0.088964827 115:0.13714932 116:0.12536368 117:0.044723071 118:0.072887115 119:0.1130526 120:0.03065682 121:0.058998112 122:0.1261076 123:-0.061175216 124:0.038760841 125:-0.092828192 126:-0.027109463 127:0.041907258 
-0 -0.07921917594833527 0 0.6350894737883523 0:0.025047906 1:-0.034061123 2:-0.055604558 3:0.0068725878 4:-0.1070096 5:0.065055415 6:-0.14344998 7:0.017229265 8:0.2058626 9:0.046305697 10:-0.037919428 11:-0.096644849 12:-0.092753239 13:-0.012898104 14:-0.079428874 15:-0.092222564 16:-0.1050919 17:-0.075933419 18:0.012867213 19:0.028764937 20:-0.085215494 21:0.07971888 22:0.22220877 23:-0.028158084 24:-0.16096024 25:-0.05909802 26:0.063741498 27:-0.010104608 28:-0.098129585 29:-0.025527038 30:0.075286888 31:0.052934416 32:0.12960286 33:0.11779721 34:0.073261186 35:0.10097137 36:0.1397215 37:0.068081245 38:0.0092355954 39:0.017061979 40:-0.097525656 41:-0.16924132 42:-0.040223274 43:0.026845537 44:-0.013171572 45:0.1495731 46:-0.0037704012 47:-0.068431273 48:0.012606608 49:0.0090335095 50:0.17552043 51:-0.025847711 52:-0.025697306 53:-0.037592307 54:-0.090019003 55:-0.051257115 56:0.023306718 57:-0.17258243 58:-0.14009678 59:-0.017941685 60:-0.14762032 61:0.077192023 62:-0.085456975 63:-0.014175635 64:0.10996865 65:-0.070377506 66:-0.13855416 67:0.11880047 68:-0.018411607 69:0.066153027 70:-0.021578856 71:-0.064309984 72:-0.1709156 73:-0.068371452 74:-0.13524966 75:0.039279703 76:0.050943721 77:0.070424333 78:-0.029213864 79:-0.064418212 80:-0.13102269 81:0.051307421 82:0.053023279 83:-0.14650878 84:-0.11766596 85:0.066871986 86:-0.052736104 87:0.1060817 88:-0.10265897 89:0.020984644 90:-0.19385314 91:0.020341448 92:0.02822564 93:0.073683523 94:0.030694261 95:0.036906242 96:0.025826575 97:0.11078798 98:-0.026227063 99:0.01128517 100:-0.040912773 101:0.055003978 102:0.097908959 103:-0.16368692 104:0.04051093 105:0.024778703 106:0.031135809 107:-0.011283183 108:0.093262821 109:0.010441656 110:-0.039050393 111:0.029148499 112:0.009394181 113:-0.042647194 114:0.099472381 115:0.15973894 116:0.13862987 117:0.037515868 118:0.14837101 119:0.086698025 120:0.070849806 121:0.11759152 122:0.13873026 123:-0.042374238 124:0.075828783 125:-0.11442549 126:-0.016496653 127:0.037912235 
-0.2078646879440012 -0.06822075245007693 0 0.4757021940720404 0:0.043635666 1:-0.03346337 2:-0.017038098 3:0.0042012124 4:-0.14315723 5:0.022227345 6:-0.049163774 7:0.060094487 8:0.076554991 9:-0.034377813 10:0.014660977 11:-0.12944719 12:0.064636037 13:-0.055830363 14:-0.072981715 15:0.026785348 16:0.032731805 17:-0.12510996 18:-0.01165232 19:0.013044587 20:-0.1171978 21:-0.0066575776 22:0.20499799 23:-0.13504772 24:-0.12808566 25:-0.042674508 26:-0.095518246 27:-0.11826131 28:-0.043896928 29:-0.055140354 30:0.10569022 31:0.070517376 32:0.055546291 33:0.07215739 34:0.18329002 35:0.12738486 36:0.040290587 37:0.012577879 38:0.048110895 39:-0.013755079 40:-0.053477835 41:-0.19266275 42:-0.13709013 43:0.0016450292 44:-0.10875304 45:0.07363338 46:0.080198035 47:0.09521322 48:-0.0927843 49:-0.016539143 50:0.17563516 51:-0.13659808 52:0.044475012 53:-0.071192227 54:-0.049609423 55:-0.051084373 56:-0.011454436 57:-0.11449075 58:-0.068219967 59:0.027119137 60:-0.061791066 61:0.1050618 62:-0.11914093 63:0.024244456 64:0.10940715 65:-0.086665884 66:-0.1239364 67:0.11656953 68:0.045547578 69:-0.0052709645 70:-0.016684826 71:-0.1041294 72:-0.073203579 73:-0.078929938 74:-0.12217589 75:0.0087425215 76:0.02945633 77:0.12256359 78:-0.081381291 79:0.0013984499 80:-0.02407369 81:-0.011196787 82:-0.058562178 83:-0.2171942 84:0.035646398 85:0.023159549 86:-0.045525365 87:-0.054573402 88:-0.12603781 89:-0.086349398 90:-0.20114571 91:0.010965989 92:0.019167431 93:0.020114558 94:0.13718784 95:0.062981844 96:-0.060740329 97:0.079445526 98:-0.085440256 99:-0.010452711 100:-0.080579259 101:-0.050954994 102:0.14541073 103:-0.13708185 104:0.02580739 105:0.052138977 106:0.022499589 107:-0.052361943 108:0.032737188 109:-0.018972276 110:0.014903202 111:0.069341555 112:0.043750849 113:-0.10409781 114:0.10200931 115:0.19809395 116:0.036329407 117:0.06505315 118:0.10729845 119:0.14958675 120:0.036556348 121:0.075087346 122:0.11288995 123:-0.12401006 124:0.025875619 125:-0.17274286 126:-0.048841845 127:-0.017862041 
-0.5885117765540651 -0.4233205143036063 0.4971332485838099 0.06123272300388979 0:0.048212674 1:-0.030234508 2:-0.025308482 3:-0.0062684705 4:-0.13238415 5:0.036974244 6:-0.041084379 7:0.075810924 8:0.07673917 9:-0.035120353 10:0.004781663 11:-0.1163163 12:0.059214767 13:-0.026954191 14:-0.086943574 15:-0.023468871 16:-0.012776883 17:-0.14816797 18:-0.017604826 19:-0.046397615 20:-0.10893796 21:0.003699701 22:0.23794943 23:-0.098015219 24:-0.098959319 25:-0.031311881 26:-0.071891427 27:-0.1087186 28:-0.059510648 29:-0.014387216 30:0.068134271 31:0.030301336 32:0.065178037 33:0.093815751 34:0.20441587 35:0.1233975 36:0.063070014 37:-0.0058282567 38:0.084115528 39:0.0038149087 40:-0.041924693 41:-0.19578505 42:-0.1243671 43:-0.00019685768 44:-0.085726626 45:0.10874899 46:0.053452149 47:0.10030608 48:-0.097609587 49:-0.044912543 50:0.1394053 51:-0.11980641 52:-0.0081601832 53:-0.11373951 54:-0.054440208 55:-0.063081719 56:0.0097670229 57:-0.087478191 58:-0.058802072 59:0.0098165646 60:-0.05259569 61:0.14208575 62:-0.12854324 63:0.019052025 64:0.15015218 65:-0.11264586 66:-0.10018335 67:0.12205701 68:0.050628193 69:-0.0063409777 70:0.0084720934 71:-0.04466407 72:-0.096586257 73:-0.048790786 74:-0.10428926 75:0.020092091 76:0.041464265 77:0.12863281 78:-0.086425975 79:-0.03732767 80:-0.036937874 81:-0.00077179493 82:-0.068349645 83:-0.22080566 84:-0.01971386 85:0.047530595 86:-0.055591546 87:-0.038703319 88:-0.10903006 89:-0.0033700815 90:-0.2066433 91:0.041331392 92:-0.017927943 93:0.055152375 94:0.12526312 95:0.066462271 96:-0.036561947 97:0.12368893 98:-0.096352436 99:-0.0020987533 100:-0.070238568 101:-0.017024504 102:0.13827831 103:-0.14884368 104:0.035836104 105:0.068673342 106:-0.014178338 107:-0.03745766 108:0.033296272 109:0.044485793 110:-0.016800612 111:0.06839361 112:0.04535082 113:-0.11713351 114:0.078504652 115:0.1782963 116:0.021526579 117:0.052245945 118:0.11914857 119:0.15585776 120:0.030572092 121:0.065376475 122:0.10425437 123:-0.17862198 124:0.041818447 125:-0.13496335 126:-0.057877246 127:-0.013941485 
-0.4726342043849733 -1 -0.04248050787844502 0.1137967867129149 0:0.10229205 1:-0.10706719 2:0.052345484 3:-0.16817024 4:-0.0022928703 5:0.097995043 6:0.17090362 7:0.059969243 8:-0.023920218 9:-0.0045726825 10:0.080316454 11:0.038919292 12:0.025383703 13:-0.18162537 14:-0.061738435 15:-0.034810267 16:-0.036273502 17:-0.12862574 18:0.051415619 19:0.1237257 20:-0.083485827 21:-0.013678096 22:-0.10552991 23:-0.070358351 24:0.030196169 25:-0.048638619 26:0.014248205 27:0.069953464 28:0.0019159085 29:-0.040697109 30:0.013222503 31:-0.077872962 32:0.048538558 33:-0.13115562 34:-0.09300974 35:0.041944835 36:0.082727239 37:-0.017486852 38:-0.12855954 39:0.028365893 40:-0.049689252 41:-0.06611494 42:-0.076674469 43:0.03936087 44:-0.010981335 45:-0.051874772 46:-0.056151051 47:0.087507218 48:-0.14467688 49:0.096298277 50:0.068542421 51:-0.0028858271 52:0.069918133 53:-0.1133538 54:-0.062171165 55:-0.033948973 56:0.09650851 57:0.07785926 58:0.050407585 59:0.010456553 60:0.12554325 61:-0.063658908 62:-0.044531748 63:-0.13948223 64:0.028190566 65:0.1288452 66:-0.057321366 67:0.0078230752 68:0.2515654 69:0.022890326 70:-0.053479377 71:0.035556663 72:-0.038603194 73:0.020966705 74:-0.13205391 75:0.0048811259 76:-0.095669962 77:0.13946322 78:0.14144932 79:0.00094148645 80:0.075803868 81:-0.061441407 82:-0.12193996 83:0.0011238793 84:-0.10126657 85:-0.11743929 86:-0.052961066 87:-0.13179114 88:-0.07852491 89:0.063271329 90:-0.093519077 91:0.15058775 92:-0.080482744 93:-0.13237867 94:0.045984093 95:0.038846493 96:0.090278946 97:0.067124747 98:0.10052872 99:-0.16361049 100:-0.11749704 101:-0.0032013098 102:0.054073509 103:0.13082434 104:0.0080176881 105:0.004048429 106:0.12905119 107:-0.11106612 108:0.12516117 109:-0.006615032 110:-0.098804556 111:-0.21046884 112:-0.026747458 113:-0.025655759 114:-0.15335263 115:-0.17154536 116:-0.10309795 117:-0.03683104 118:0.095949672 119:-0.036526144 120:-0.048670448 121:-0.063055329 122:-0.041225668 123:0.063338801 124:0.036616661 125:0.006328668 126:0.079552099 127:0.097300343 
-0.4138068244388124 -0.3913192981322846 -0.547499104295198 1 0:0.085597172 1:-0.097776547 2:0.027213613 3:-0.16384523 4:0.011583604 5:0.11305021 6:0.16353048 7:0.05377065 8:-0.099372186 9:0.0064977277 10:0.065148152 11:0.021466596 12:0.031027298 13:-0.20693427 14:-0.10169846 15:-0.0059384746 16:-0.019634757 17:-0.088321485 18:0.067615412 19:0.15941389 20:-0.14812212 21:0.056835543 22:-0.054770567 23:-0.062110163 24:-0.015248111 25:-0.0004411625 26:0.07919912 27:0.10111692 28:0.0037279227 29:-0.061871048 30:-0.045115899 31:-0.11017483 32:0.04234669 33:-0.068564653 34:-0.12053309 35:0.071839936 36:0.013283581 37:0.030812237 38:-0.14418285 39:0.022151191 40:-0.032428201 41:-0.080883346 42:-0.14002222 43:0.045088544 44:-0.037842039 45:-0.033838455 46:-0.042211883 47:0.047098119 48:-0.20736617 49:0.061008848 50:0.061207108 51:0.016099481 52:-0.023555076 53:-0.070417196 54:-0.032703251 55:-0.081524551 56:0.06579005 57:0.080195911 58:0.07144656 59:-0.012961545 60:0.065508783 61:-0.046632487 62:-0.042763796 63:-0.11291854 64:0.027674038 65:0.11237602 66:-0.061578922 67:-0.050108206 68:0.24076428 69:0.047675215 70:-0.0056181843 71:-0.014707151 72:-0.037896894 73:-0.020625958 74:-0.12598555 75:0.0027945803 76:-0.062309247 77:0.099437051 78:0.14217052 79:-0.021338284 80:0.055536546 81:-0.095295787 82:-0.14446886 83:0.015198953 84:-0.12641801 85:-0.11913773 86:-0.036849603 87:-0.035593025 88:-0.077482536 89:0.059422679 90:-0.13850157 91:0.1396026 92:-0.044787869 93:-0.13437867 94:0.050371658 95:0.0061420486 96:0.10893522 97:0.054051187 98:0.045689952 99:-0.12723756 100:-0.074277781 101:-0.018380452 102:0.11419447 103:0.13346638 104:-0.015726587 105:0.0093599316 106:0.0715627 107:-0.15361799 108:0.090878479 109:0.049323313 110:-0.0072664288 111:-0.20048124 112:-0.076407187 113:-0.040201604 114:-0.11512695 115:-0.13562036 116:-0.11717862 117:-0.098439984 118:0.12735531 119:-0.049592283 120:-0.090828307 121:-0.016152553 122:-0.025949989 123:-0.025839871 124:0.10413722 125:0.059078064 126:0.11989333 127:0.12251632 
-1 -0.6608938989668506 -0.7055868156428261 1 0:0.065508313 1:-0.055797175 2:-0.034766167 3:-0.11773653 4:0.053387791 5:0.081367344 6:0.074750878 7:0.19188064 8:-0.14933179 9:-0.089981183 10:0.038259123 11:0.10214067 12:0.048072979 13:-0.1587155 14:-0.083282158 15:-0.053350534 16:0.04452141 17:-0.072738811 18:0.099439412 19:0.1036002 20:-0.098712593 21:-0.0091887657 22:-0.048943412 23:-0.028978594 24:0.053399682 25:-0.044119138 26:0.10164491 27:0.039266437 28:-0.096991137 29:-0.0030920259 30:-0.087774806 31:-0.050473798 32:0.1564139 33:0.043726116 34:-0.02330517 35:0.021320714 36:0.12031531 37:-0.022843486 38:-0.079561785 39:0.017445534 40:0.030385761 41:-0.11872584 42:-0.015597926 43:0.1200552 44:-0.007879639 45:-0.087083898 46:-0.01994234 47:-0.016250571 48:-0.21571897 49:0.15157543 50:0.091628447 51:-0.046786129 52:-0.075297058 53:-0.14393757 54:-0.11260606 55:-0.056044538 56:0.057277665 57:0.12365882 58:0.111109 59:-0.060465191 60:0.059883613 61:-0.02466277 62:-0.014334398 63:-0.11311819 64:-0.028964162 65:0.084717415 66:-0.032777805 67:0.13117343 68:0.17506225 69:0.022919701 70:-0.14675936 71:0.050426748 72:-0.12208154 73:-0.019394072 74:-0.028221114 75:0.017960317 76:0.074192211 77:0.091289036 78:0.055200741 79:0.024111383 80:0.0018395652 81:-0.10087632 82:-0.12832275 83:-0.0057574692 84:-0.071979024 85:-0.019379841 86:-0.041991487 87:-0.06823305 88:-0.087861575 89:0.18099795 90:-0.045551535 91:0.22816283 92:-0.026546197 93:-0.10858772 94:0.059170712 95:-0.027149225 96:0.071631595 97:0.016195185 98:0.052922137 99:-0.052488841 100:-0.055445641 101:-0.063524589 102:0.1096907 103:0.181027 104:-0.087371781 105:-0.10437642 106:-0.020526897 107:-0.012116809 108:0.13362521 109:-0.12724967 110:-0.050162286 111:-0.2588127 112:0.041185953 113:0.0036625112 114:-0.036684271 115:-0.089145571 116:-0.084198177 117:-0.024165345 118:0.11962019 119:-0.00031860321 120:-0.053172108 121:-0.047496755 122:-0.0268746 123:-0.038888477 124:0.11447969 125:-0.02844383 126:-0.021796042 127:0.045753486 
-0 -0 -0 -1 0:0.079845294 1:-0.00780694 2:-0.056451432 3:-0.18858586 4:-0.0073815282 5:0.15926039 6:0.037273794 7:0.010894206 8:-0.033022124 9:-0.023867769 10:0.055208903 11:-0.044021517 12:-0.065160878 13:-0.02484023 14:-0.019181564 15:-0.016441863 16:0.0097804395 17:0.010681854 18:0.10089032 19:0.074458346 20:-0.095348157 21:0.082615323 22:-0.092270933 23:-0.11021194 24:-0.020088695 25:-0.0047058123 26:0.20921448 27:-0.044736113 28:-0.10278451 29:0.00093318004 30:-0.0024860329 31:-0.051518317 32:0.032736141 33:0.022107387 34:0.062775172 35:0.082989745 36:0.11009341 37:0.033786476 38:-0.18617213 39:0.025640452 40:-0.03356893 41:-0.067437612 42:-0.17795764 43:0.057065763 44:-0.089203879 45:-0.063534133 46:-0.093574844 47:-0.094902061 48:-0.095155276 49:0.12700199 50:0.11724908 51:-0.040372927 52:-0.11142212 53:-0.0076241749 54:-0.064999312 55:-0.13138025 56:0.075389452 57:-0.0043299864 58:0.032711364 59:0.047472309 60:-0.014481898 61:0.074180268 62:-0.037735693 63:-0.026366118 64:0.050585013 65:-0.049633853 66:0.050813455 67:0.12376053 68:0.023986382 69:0.06898845 70:0.039005283 71:-0.11378258 72:-0.033019681 73:-0.06078909 74:-0.10475871 75:0.074838214 76:0.12701166 77:0.11240038 78:-0.071081579 79:0.11259419 80:0.062117562 81:-0.09107881 82:-0.043611102 83:-0.077579774 84:-0.19944467 85:-0.097986892 86:0.038715139 87:0.033478521 88:-0.085736193 89:-0.0013028081 90:-0.31428239 91:0.12552276 92:0.089151658 93:-0.12379249 94:-0.035214394 95:0.08380191 96:-0.025817467 97:0.004806391 98:0.053323634 99:-0.052057948 100:0.0522235 101:0.005649711 102:0.0028926714 103:-0.017362759 104:-0.044242468 105:-0.066298679 106:-0.023677744 107:-0.09514495 108:0.21846254 109:0.024806013 110:-0.0031837621 111:-0.14954211 112:-0.022444041 113:-0.10075039 114:0.085176632 115:0.15185006 116:-0.12227913 117:0.1497582 118:0.14099874 119:0.0030916624 120:0.12343711 121:0.092264593 122:0.036652129 123:0.027130114 124:0.11972694 125:0.072169296 126:0.026091523 127:0.068912648 
-1 -1 -0 -0 0:0.041824132 1:0.0022400757 2:-0.017282987 3:-0.18220052 4:-0.040023874 5:0.16631365 6:0.023062591 7:-0.010776708 8:-0.053779714 9:-0.0015409207 10:0.02506916 11:-0.0093517201 12:-0.05623398 13:0.022466986 14:0.02804859 15:-0.0040419921 16:0.059171841 17:0.002330123 18:0.12734635 19:0.09027829 20:-0.10911375 21:0.085365199 22:-0.095985234 23:-0.091770262 24:-0.000687639 25:0.051234011 26:0.21957171 27:-0.059143916 28:-0.12062172 29:-0.015383633 30:0.0043363222 31:-0.0058160699 32:0.024356533 33:0.018847808 34:0.11088368 35:0.065760083 36:0.13807687 37:-0.011640266 38:-0.17633674 39:0.0048815282 40:-0.037427217 41:-0.026534403 42:-0.15084121 43:0.0041121566 44:-0.10008962 45:-0.044594232 46:-0.072226413 47:-0.11466192 48:-0.045001961 49:0.10208324 50:0.12157022 51:-0.023730593 52:-0.076772958 53:-0.0079847379 54:-0.056055486 55:-0.12329049 56:0.13384593 57:0.0084201759 58:0.083167836 59:0.083529182 60:0.024225606 61:0.036282662 62:-0.056812938 63:0.024840625 64:0.064406514 65:-0.017509615 66:0.033603568 67:0.14770572 68:0.052622434 69:0.045742523 70:-0.028577713 71:-0.12773661 72:0.014044055 73:-0.049644321 74:-0.1219786 75:0.096173115 76:0.14957361 77:0.17378464 78:-0.066171184 79:0.10652968 80:0.056484606 81:-0.073808551 82:-0.076240584 83:-0.10839158 84:-0.16247264 85:-0.086345367 86:0.015151636 87:0.018602403 88:-0.041775711 89:-0.022888012 90:-0.28779542 91:0.13785332 92:0.074222639 93:-0.11610693 94:-0.0097609079 95:0.091060251 96:-0.010243762 97:-0.011083786 98:0.022928178 99:-0.088580377 100:0.035040714 101:0.0011139147 102:-0.030647285 103:-0.02029058 104:-0.049303893 105:-0.020957159 106:0.0067152632 107:-0.098639518 108:0.22564477 109:0.0099748662 110:-0.028190039 111:-0.094745986 112:-0.041388813 113:-0.110893 114:0.046821076 115:0.15818609 116:-0.11866098 117:0.17227873 118:0.11510297 119:0.0072869696 120:0.13375808 121:0.12336715 122:0.011887538 123:0.047405593 124:0.10395594 125:0.07989078 126:0.074782871 127:0.047573883 
-0 -0 -0 -0.2104263815241971 0:0.049406324 1:0.046348836 2:-0.085217282 3:-0.21304645 4:-0.021428203 5:0.090393513 6:0.014760439 7:-0.015584639 8:-0.0046767979 9:0.0047689984 10:0.061797012 11:-0.035049405 12:-0.044166002 13:-0.06125854 14:-0.055602711 15:0.029762307 16:0.15112142 17:-0.025821313 18:0.15573482 19:0.087563135 20:-0.14185666 21:0.052262016 22:-0.0668322 23:-0.079337716 24:-0.048169006 25:0.020626137 26:0.21573971 27:-0.039276369 28:-0.1421252 29:-0.056338172 30:-5.5406406e-05 31:-0.031760722 32:0.027319433 33:-0.034800116 34:0.12258817 35:0.051167075 36:0.052675828 37:0.028311135 38:-0.16868305 39:0.018946249 40:-0.0020839244 41:0.016257817 42:-0.11459094 43:0.019535011 44:-0.055010956 45:-0.031143324 46:-0.077831998 47:-0.098709568 48:-0.094263241 49:0.10347253 50:0.11269668 51:-0.077732913 52:-0.05138199 53:0.0096100224 54:-0.050870385 55:-0.11385994 56:0.0333995 57:0.031455558 58:0.07512936 59:0.027243946 60:0.0044276607 61:0.021889739 62:-0.032974776 63:0.0018448979 64:0.03267242 65:-0.010685402 66:0.049455702 67:0.15568022 68:0.035540517 69:0.034621153 70:0.0049582329 71:-0.070171937 72:0.0302945 73:-0.10591987 74:-0.13892566 75:0.18254746 76:0.13660374 77:0.14662515 78:-0.078055814 79:0.11534748 80:0.071030684 81:-0.10052679 82:-0.059974939 83:-0.10234832 84:-0.14086248 85:-0.10132813 86:0.013284928 87:0.037641052 88:-0.048502699 89:-0.014534551 90:-0.25564504 91:0.12218928 92:0.074035443 93:-0.16823715 94:0.0065115327 95:0.066125326 96:0.034576718 97:-0.044204462 98:0.0023452358 99:-0.060465135 100:0.004818005 101:0.017358022 102:-0.0088146348 103:-0.0050390377 104:0.010986969 105:-0.0033290964 106:-0.013072561 107:-0.14006051 108:0.22555918 109:0.015416556 110:-0.0090166852 111:-0.13346756 112:-0.048823372 113:-0.0081846099 114:0.15537605 115:0.15411742 116:-0.066274054 117:0.12847643 118:0.095171653 119:0.016947389 120:0.19293746 121:0.10706068 122:0.033242777 123:0.034487423 124:0.11357232 125:0.087264575 126:0.03125393 127:0.10758793 
-0.8330169207821004 -0.4620658918697807 -0.6951404586899231 -0 0:0.054342762 1:-0.029147221 2:-0.12465816 3:-0.20335855 4:-0.025617022 5:0.13529034 6:0.0050551523 7:-0.039075263 8:-0.028516915 9:1.0945603e-05 10:0.02728291 11:0.012647307 12:-0.014955184 13:0.011675426 14:-0.041877646 15:-0.022619229 16:0.04204385 17:0.0089306803 18:0.12429457 19:0.06169926 20:-0.085841499 21:0.099417709 22:-0.073514216 23:-0.07399904 24:-0.064659938 25:0.041248038 26:0.21808808 27:-0.056898531 28:-0.087377787 29:0.011523878 30:-0.011352772 31:0.0048875986 32:0.045768753 33:0.03839517 34:0.11907094 35:0.11339782 36:0.1045314 37:0.01468908 38:-0.14818205 39:0.03644976 40:0.013114696 41:-0.09310931 42:-0.15197462 43:-0.026831489 44:-0.059810903 45:-0.023445191 46:-0.10490239 47:-0.08946231 48:-0.01983618 49:0.082931541 50:0.14246261 51:-0.057857145 52:-0.092255458 53:0.055355806 54:-0.033536531 55:-0.10934918 56:0.059202883 57:0.026389947 58:0.072787695 59:0.057772577 60:-0.0044129076 61:0.011784939 62:-0.057239801 63:0.05780052 64:0.071232237 65:-0.014055901 66:0.063895412 67:0.13597791 68:-0.024322128 69:0.038256444 70:0.047980428 71:-0.10244756 72:0.00088701985 73:0.017268248 74:-0.14239933 75:0.13030723 76:0.16840205 77:0.17753947 78:-0.068768568 79:0.088466048 80:0.0307911 81:-0.13305774 82:-0.068199851 83:-0.12162951 84:-0.13387758 85:-0.049586833 86:0.026688226 87:0.09302336 88:-0.073860042 89:0.006195006 90:-0.22587624 91:0.1208713 92:0.094466157 93:-0.1032926 94:-0.032948215 95:0.080502264 96:0.011856837 97:-0.017240237 98:0.037882924 99:-0.046450287 100:0.051175732 101:0.055423569 102:-0.01678629 103:-0.09152855 104:-0.030804303 105:-0.0045104246 106:-0.039839398 107:-0.12229883 108:0.20691547 109:-0.033052564 110:-0.034139384 111:-0.10940041 112:-0.069633141 113:-0.081995904 114:0.1178577 115:0.17418116 116:-0.062421653 117:0.17383458 118:0.09335497 119:-0.0042858934 120:0.18760584 121:0.11862236 122:0.026158331 123:0.038076136 124:0.10961794 125:0.11222786 126:0.081338562 127:0.10755502 
-1 -1 -0 -0.9033704051887178 0:0.062302493 1:-0.017089391 2:-0.038515173 3:-0.20826447 4:-0.040566076 5:0.15194441 6:0.039764941 7:-0.02582364 8:-0.05439033 9:-0.029774493 10:0.0039442983 11:-0.016346542 12:0.0026423752 13:-0.024758825 14:-0.012253173 15:0.0015538664 16:0.045535743 17:-0.0089929868 18:0.1356212 19:0.096595392 20:-0.12280054 21:0.081497118 22:-0.12348724 23:-0.082103215 24:-0.0035857444 25:0.049340248 26:0.21326619 27:-0.062884957 28:-0.14316058 29:-0.0040937271 30:-0.040256601 31:-0.012196342 32:0.051349621 33:0.02175767 34:0.13982317 35:0.079604611 36:0.11289699 37:-0.0098421331 38:-0.19159319 39:0.019256543 40:-0.039171591 41:-0.046897266 42:-0.20354302 43:0.043409977 44:-0.068060145 45:-0.052007914 46:-0.058212709 47:-0.081694305 48:-0.048050802 49:0.098674729 50:0.15368526 51:-0.075486086 52:-0.03375892 53:-0.014746126 54:-0.069790937 55:-0.098363586 56:0.10701044 57:0.02847122 58:0.056203552 59:0.040023003 60:0.032697607 61:0.035951972 62:-0.087266788 63:-0.0077585611 64:0.090379395 65:0.0062617282 66:0.021248667 67:0.14924763 68:0.050310019 69:0.070013724 70:-0.022884801 71:-0.11064158 72:-0.0029132827 73:-0.01560933 74:-0.1233054 75:0.12010405 76:0.12976104 77:0.14119336 78:-0.0017260257 79:0.1297694 80:0.038266506 81:-0.076255828 82:-0.08557196 83:-0.10176559 84:-0.13572492 85:-0.093438581 86:0.01316191 87:0.0051203165 88:-0.058847263 89:-0.013792182 90:-0.21940768 91:0.12638423 92:0.05827852 93:-0.1211895 94:-0.021258434 95:0.089286268 96:0.016960111 97:-0.043273322 98:0.0096716275 99:-0.064745747 100:0.043310326 101:-0.019612197 102:-0.0066155437 103:-0.033307578 104:-0.029809203 105:-0.012350061 106:0.013339438 107:-0.11923908 108:0.20957918 109:0.0061781267 110:-0.059695121 111:-0.1119124 112:-0.03566004 113:-0.064091966 114:0.08935152 115:0.19448157 116:-0.10083935 117:0.17573433 118:0.11716061 119:0.0018203192 120:0.16475143 121:0.096598916 122:-0.016136937 123:0.046503209 124:0.11708105 125:0.076404728 126:0.057467073 127:0.096790172 
-0.4606844546784899 -0.2303353842475301 -1 -0 0:0.01049138 1:-0.024766311 2:-0.026221339 3:-0.17635116 4:0.011489947 5:0.14323983 6:0.0071062888 7:-0.011982476 8:-0.0047792317 9:-0.022584455 10:0.041362923 11:-0.039163277 12:-0.036025956 13:0.0015512743 14:-0.024615195 15:-0.020557314 16:0.074840054 17:0.031453084 18:0.087854877 19:0.082937375 20:-0.073282376 21:0.12307052 22:-0.031186005 23:-0.060397029 24:-0.0034891982 25:0.0049007353 26:0.21184531 27:0.0047261068 28:-0.11665507 29:-0.036099486 30:-0.0028790126 31:-0.017791381 32:0.027697545 33:0.076163441 34:0.14804351 35:0.059220284 36:0.15757906 37:0.0021823428 38:-0.1742302 39:0.077932812 40:-0.098297909 41:-0.047233302 42:-0.16234647 43:0.014560335 44:-0.049779467 45:-0.0089191301 46:-0.084113955 47:-0.080066323 48:-0.065248467 49:0.17718548 50:0.10939344 51:-0.035661504 52:-0.088313736 53:-0.056632537 54:-0.069188587 55:-0.071760081 56:0.12503298 57:0.029891832 58:0.041054647 59:0.032720178 60:-0.03287299 61:0.043010224 62:-0.058877926 63:-0.0090948576 64:0.054707311 65:-0.006396322 66:0.041723479 67:0.13593417 68:0.058672614 69:0.077149048 70:-0.011509829 71:-0.11109344 72:0.0045812032 73:-0.012438904 74:-0.10079385 75:0.1352355 76:0.20979357 77:0.11555904 78:-0.077811792 79:0.14625803 80:0.041700795 81:-0.053112097 82:-0.0048635649 83:-0.12183002 84:-0.10407758 85:-0.043508742 86:0.048781298 87:0.011012861 88:-0.071373545 89:-0.048077073 90:-0.30410323 91:0.10076564 92:0.046367798 93:-0.12138248 94:-0.038001548 95:0.064493686 96:-0.046318818 97:-0.019833943 98:0.038205124 99:-0.092102207 100:0.10312372 101:-0.037059955 102:-0.026624477 103:-0.054103512 104:0.016687026 105:-0.015631886 106:-0.06459596 107:-0.11760292 108:0.20328198 109:0.02632031 110:-0.0092827659 111:-0.071902029 112:0.035285208 113:0.0015803567 114:0.10305995 115:0.21075019 116:-0.075364441 117:0.16303517 118:0.12762858 119:0.0025873724 120:0.15526251 121:0.097909078 122:0.060648546 123:0.039823472 124:0.14517911 125:-0.0081290193 126:-0.017792767 127:0.075931408 
-0 -0 -0.3625797112441609 -0 0:0.1084143 1:-0.0068803295 2:-0.072712243 3:-0.14979635 4:-0.031344816 5:0.10924875 6:0.013214177 7:-0.031350996 8:-0.041616753 9:0.011542481 10:0.077722721 11:-0.061162744 12:0.0075193653 13:-0.020457942 14:-0.030786047 15:0.037100181 16:0.055077847 17:-0.0054167663 18:0.078741007 19:0.13251206 20:-0.1097118 21:0.02746769 22:-0.032476142 23:-0.10272067 24:-0.077803455 25:0.06435626 26:0.18782479 27:-0.063687019 28:-0.15682544 29:0.033095226 30:-0.010322973 31:-0.05208094 32:-0.0036309741 33:-0.05409009 34:0.14582549 35:0.093739755 36:0.097408786 37:0.029261932 38:-0.1623165 39:-0.015253211 40:0.0074681514 41:-0.029442776 42:-0.2126693 43:0.029688811 44:-0.069638722 45:-0.043979846 46:-0.065849371 47:-0.11389302 48:-0.084882878 49:0.096791685 50:0.1517728 51:-0.064567305 52:-0.066885822 53:0.0089767296 54:-0.059479807 55:-0.13781236 56:0.096534654 57:0.0073080808 58:0.079341792 59:0.037284683 60:-0.0097021917 61:0.067567348 62:-0.04523975 63:0.031744059 64:0.044482388 65:-0.014425373 66:0.02889685 67:0.1358203 68:-0.021569211 69:0.093622729 70:0.0055980887 71:-0.091216475 72:0.0016266452 73:-0.059177943 74:-0.055636805 75:0.080869384 76:0.10100866 77:0.13466817 78:-0.036291495 79:0.11451726 80:0.082068294 81:-0.064946122 82:-0.086132266 83:-0.080449954 84:-0.20203929 85:-0.11381075 86:0.026214773 87:0.034976903 88:-0.01557197 89:-0.031239631 90:-0.28978607 91:0.12441956 92:0.10355493 93:-0.14196131 94:-0.014319944 95:0.062466063 96:-0.07726869 97:-0.035703897 98:-0.0024053114 99:-0.057264846 100:0.038408149 101:-0.0026655386 102:-0.02982891 103:-0.0094133131 104:-0.018657235 105:-0.051473498 106:-0.022908822 107:-0.12095308 108:0.20869868 109:0.041603945 110:0.00061095698 111:-0.13116133 112:0.02534415 113:-0.068951905 114:0.15492043 115:0.17159395 116:-0.068654798 117:0.12436991 118:0.13376689 119:-0.010213504 120:0.15434575 121:0.10855825 122:0.0061246273 123:0.045281406 124:0.11431597 125:0.044542745 126:0.032968957 127:0.10191517 
